english 0.064247 -0.004256 0.041366 -0.002035 -0.049233 -0.052643 -0.061988 0.048710 -0.002259 -0.016355 
hindi 0.048310 0.044333 0.013474 0.087779 -0.038535 -0.022952 0.023282 -0.032649 0.030550 0.041559 
dog -0.030153 0.055915 -0.023090 0.077443 -0.030608 -0.031692 -0.025335 0.026595 -0.001443 -0.011591 
cat -0.026082 -0.016273 0.005041 0.029145 0.064014 0.040033 -0.025896 0.019711 -0.021774 0.027377 
sanskrit 0.009924 0.091491 -0.016434 0.046452 -0.015035 0.028964 0.028056 -0.026395 -0.062199 -0.037061 
memes 0.054746 0.016455 -0.078827 -0.002069 -0.020750 -0.012602 -0.003119 -0.058541 0.026465 -0.003821 
lithuania 0.037341 -0.078385 -0.012241 0.027088 0.039589 0.004851 -0.012819 0.005425 -0.011278 0.082272 
darwin -0.012604 0.087285 -0.010762 0.058309 -0.047744 0.096834 -0.002260 0.035399 -0.068358 0.006345 
german -0.002410 0.067441 0.027935 0.005155 0.028760 -0.008237 0.029571 -0.047648 -0.006273 0.007315 
italian 0.006609 0.003274 0.004157 -0.002359 -0.030330 0.024117 0.044542 0.019193 -0.001495 -0.003358 
reptile -0.003334 -0.006093 0.062253 0.030666 0.086751 0.002816 0.022561 0.049088 0.078992 0.001626 
lizard 0.055109 -0.025354 0.022912 -0.013309 0.046636 0.022193 -0.059283 0.034314 0.066146 -0.034633 
alligator -0.019533 0.046086 -0.010781 -0.026036 0.043479 -0.014175 -0.042032 0.055713 -0.007073 -0.008930 
puppy -0.009562 0.045979 0.022453 -0.090187 0.000519 0.054410 0.021016 0.009151 0.066542 0.040282 
kitten 0.025753 -0.008829 0.044643 -0.018053 0.082475 -0.032465 -0.043993 0.023983 -0.023652 -0.094163 
mice 0.005209 -0.057661 0.042562 0.019241 0.007954 -0.059802 -0.047749 -0.013724 0.034000 -0.023139 
mouse -0.057503 0.037085 0.003221 -0.031304 -0.016851 -0.033268 0.010999 0.005403 -0.051284 0.061684 
leopard -0.037104 0.006631 -0.040494 -0.019216 0.018759 -0.008468 -0.026158 -0.054560 -0.046073 0.092251 
tiger 0.003275 -0.073352 -0.078095 0.011201 -0.004062 -0.056557 0.017658 0.032092 -0.036208 0.012154 
lion -0.033050 0.018039 -0.041897 -0.025035 -0.076358 0.015779 -0.057236 -0.015246 -0.056521 -0.033536 
