english -0.051900 0.004812 0.032657 -0.083654 0.050640 0.000729 -0.019413 -0.011009 -0.000992 0.030677 
hindi 0.070632 0.070928 0.075080 0.023110 -0.059646 0.070899 -0.068540 0.076912 -0.049173 0.049831 
dog 0.010936 -0.022170 0.003274 0.042758 -0.048163 -0.006632 0.068396 0.034930 -0.007153 -0.034476 
cat -0.084332 -0.024720 0.003350 0.028888 0.025345 0.031184 0.057253 -0.002281 0.006296 -0.031618 
sanskrit -0.069394 -0.014930 -0.036556 -0.019671 -0.004177 -0.021622 0.040233 0.008995 0.004682 -0.032085 
memes 0.056582 -0.008532 0.023215 -0.077119 -0.046636 -0.045585 -0.020389 0.062702 -0.028777 -0.048024 
lithuania -0.011093 -0.068823 0.046844 0.051916 0.032172 0.030455 -0.031426 -0.045328 -0.076677 0.054847 
darwin 0.014532 -0.014279 0.005811 -0.082476 0.022553 -0.009926 -0.013354 0.033243 -0.032476 0.033831 
german -0.002362 -0.046314 0.004979 0.056846 0.029746 0.053013 -0.014123 -0.009623 -0.062683 -0.063240 
italian -0.048337 0.019522 0.051873 -0.049416 -0.022205 -0.043164 -0.023676 0.008719 0.062685 0.027599 
reptile 0.001459 -0.000365 -0.029117 0.037227 0.008440 -0.046630 -0.020803 0.060569 -0.009168 0.057304 
lizard 0.009244 0.069794 0.031361 0.036503 -0.010532 -0.056918 -0.077137 0.085527 -0.058429 0.046911 
alligator 0.026343 -0.018106 0.011678 -0.022759 0.030000 0.060420 -0.022771 0.014491 -0.073543 -0.029923 
puppy 0.052126 -0.067178 -0.001356 0.027694 0.024116 0.008891 -0.064928 0.023225 0.008388 -0.037507 
kitten -0.009999 0.004308 0.011191 -0.072458 -0.056391 0.097497 -0.014300 -0.069802 -0.006823 0.033010 
mice 0.007417 0.007638 -0.048786 -0.033282 -0.015858 -0.048787 0.023702 0.032596 -0.012429 0.027019 
mouse 0.042583 0.013631 0.008084 0.050741 0.072628 0.005067 -0.039248 -0.013954 0.005601 -0.049497 
leopard -0.024581 -0.020289 -0.016193 -0.076489 -0.047986 -0.005236 0.055949 0.026679 0.014223 0.062150 
tiger 0.030664 0.009090 0.045361 -0.052459 -0.035499 -0.009553 0.029253 0.022774 0.092326 0.017718 
lion 0.074204 0.005026 -0.007596 -0.014150 0.067452 0.019463 -0.061093 0.022201 0.007763 0.010299 
