english -0.038251 -0.002881 -0.023741 -0.019317 0.025109 0.003450 -0.059005 -0.059048 -0.068656 -0.014409 
hindi -0.008272 0.032014 -0.061706 -0.028797 0.014599 0.016918 -0.065904 0.029226 0.009063 -0.066977 
dog -0.001606 -0.054701 -0.037583 0.057719 -0.045612 0.014572 0.072645 -0.058086 -0.011313 0.064191 
cat -0.038321 -0.032586 -0.052979 0.005572 0.046248 -0.083807 0.026664 -0.054069 0.059230 0.025141 
sanskrit -0.050740 0.004049 -0.005541 -0.070168 0.006819 -0.004073 -0.040686 0.016953 0.002493 0.012681 
memes -0.008370 0.002469 0.052020 -0.038946 0.004937 -0.020148 0.010213 0.065884 0.008902 0.014372 
lithuania 0.018069 0.065525 -0.012391 0.056534 -0.018774 0.018010 0.052900 -0.022041 -0.000624 0.050605 
darwin -0.084041 0.049142 0.057618 0.094041 0.018276 0.002289 0.037230 0.051980 -0.004000 -0.026384 
marathi 0.072292 0.023705 -0.055980 0.079184 0.031367 0.004061 0.012788 0.054034 0.004370 -0.031171 
german 0.041440 -0.020675 -0.074800 -0.003202 0.009202 0.009455 -0.032898 -0.021422 -0.037081 -0.008619 
italian 0.027486 -0.035180 -0.032549 -0.011522 0.056413 0.014534 -0.099180 0.063582 -0.022975 -0.040193 
reptile 0.024718 0.017951 -0.017920 -0.073571 -0.065029 0.013048 0.041193 -0.008947 0.041460 0.045636 
lizard -0.012798 -0.027998 -0.006212 -0.010038 -0.052139 -0.003404 -0.040177 -0.047706 -0.010357 0.078314 
alligator 0.036536 -0.076173 0.050235 0.027788 0.055870 -0.057191 0.070092 -0.020817 0.030903 0.064181 
puppy -0.058658 0.057059 0.032964 -0.041548 -0.011950 0.010296 -0.013712 0.033724 0.048185 0.053297 
kitten -0.008960 -0.015878 0.046750 0.041054 -0.015780 -0.057726 0.073494 0.014481 -0.033380 -0.014025 
mice 0.060500 0.011293 -0.032307 0.000191 -0.034965 0.010247 -0.041394 0.005772 -0.034956 -0.079604 
mouse -0.041490 0.046454 -0.005766 -0.007780 0.009993 -0.024970 0.042613 -0.034129 -0.000971 -0.025405 
