english -0.062911 0.063646 0.023047 0.036210 -0.025015 0.077537 0.040477 0.034943 0.015500 0.022456 
hindi 0.036368 -0.034361 -0.005696 0.007490 0.011900 -0.017790 -0.078255 -0.043259 -0.070432 -0.007419 
dog 0.054864 -0.074166 -0.093736 0.021227 0.006524 0.009679 0.030922 0.004440 0.041019 -0.014659 
cat 0.037522 -0.088855 0.044318 -0.072135 0.033589 0.026333 -0.048984 0.011720 0.022755 -0.006130 
sanskrit 0.022037 0.048343 -0.005238 -0.015072 0.026865 -0.010147 -0.037073 -0.006472 0.013600 -0.084620 
memes -0.079746 -0.012980 0.030995 0.009427 0.053686 0.020297 0.017167 0.074982 0.079782 -0.027347 
lithuania -0.023267 0.026936 0.000186 -0.004555 -0.064489 0.019528 0.004606 0.001533 0.034025 -0.022315 
darwin 0.056352 0.092766 0.056689 -0.010653 0.099398 -0.073128 0.012456 -0.027132 -0.041185 -0.027516 
german 0.039252 -0.030177 -0.002741 -0.022872 -0.020141 -0.019748 -0.025497 -0.041431 -0.057990 0.016099 
italian 0.062171 0.081418 0.012482 0.021641 0.025560 0.031152 0.041862 0.048700 -0.034208 -0.068550 
reptile -0.031807 -0.008879 -0.044232 0.026675 -0.039857 0.027482 -0.003462 0.048060 -0.011792 0.024557 
lizard 0.004166 -0.049626 0.011343 -0.085161 0.021405 0.045087 -0.050041 0.029523 -0.000556 -0.048831 
alligator 0.070495 -0.026707 -0.034642 0.013307 0.047188 0.030538 -0.045474 -0.057674 -0.008805 0.037791 
puppy -0.046067 0.013242 0.040461 -0.017800 -0.054689 -0.004384 0.037580 -0.001581 0.082953 -0.081770 
kitten 0.050483 0.056952 0.033327 -0.022921 -0.052223 0.057788 0.018326 0.024741 0.002246 -0.011362 
mice -0.017952 -0.007844 -0.040615 0.024808 -0.022974 -0.076505 0.081210 0.002167 -0.061709 0.068695 
mouse -0.027179 -0.073488 0.010226 0.013628 -0.046035 -0.010137 -0.079955 -0.048527 -0.008887 -0.062750 
leopard 0.015738 -0.017261 0.009110 0.004090 0.043900 -0.025028 0.007358 -0.022366 -0.020059 -0.004318 
tiger -0.023682 -0.078339 0.037433 0.007221 0.013616 -0.020948 0.020542 -0.064395 -0.046765 0.011045 
lion 0.072030 0.006442 -0.046680 -0.096581 0.037218 0.003708 0.021440 -0.034341 0.029623 0.013235 
